<?xml version="1.0"?>
<opencv_storage>
<stage9>
  <maxWeakCount>22</maxWeakCount>
  <stageThreshold>-9.6242195367813110e-01</stageThreshold>
  <weakClassifiers>
    <_>
      <internalNodes>
        0 -1 58249 9.1873563360422850e-04</internalNodes>
      <leafValues>
        4.1825902462005615e-01 -6.9230771064758301e-01</leafValues></_>
    <_>
      <internalNodes>
        0 -1 54350 7.2562252171337605e-04</internalNodes>
      <leafValues>
        -3.4830370545387268e-01 3.5372993350028992e-01</leafValues></_>
    <_>
      <internalNodes>
        0 -1 48539 3.0034519731998444e-03</internalNodes>
      <leafValues>
        -3.2630157470703125e-01 3.0293565988540649e-01</leafValues></_>
    <_>
      <internalNodes>
        0 -1 48853 2.1467462182044983e-02</internalNodes>
      <leafValues>
        -2.5283962488174438e-01 3.6072954535484314e-01</leafValues></_>
    <_>
      <internalNodes>
        0 -1 49581 -3.9344187825918198e-04</internalNodes>
      <leafValues>
        -2.9744079709053040e-01 3.1336101889610291e-01</leafValues></_>
    <_>
      <internalNodes>
        0 -1 31970 7.2769364342093468e-03</internalNodes>
      <leafValues>
        -1.7734582722187042e-01 4.7600224614143372e-01</leafValues></_>
    <_>
      <internalNodes>
        0 -1 48593 4.5855544507503510e-02</internalNodes>
      <leafValues>
        1.3337384164333344e-01 -5.6125354766845703e-01</leafValues></_>
    <_>
      <internalNodes>
        0 -1 44534 5.9692123613785952e-05</internalNodes>
      <leafValues>
        -2.1552944183349609e-01 3.9530685544013977e-01</leafValues></_>
    <_>
      <internalNodes>
        0 -1 59653 -9.8398281261324883e-04</internalNodes>
      <leafValues>
        -5.7746088504791260e-01 1.5019291639328003e-01</leafValues></_>
    <_>
      <internalNodes>
        0 -1 70441 -3.8863904774188995e-04</internalNodes>
      <leafValues>
        1.8396811187267303e-01 -4.3199729919433594e-01</leafValues></_>
    <_>
      <internalNodes>
        0 -1 57206 6.3163228332996368e-03</internalNodes>
      <leafValues>
        -4.7101226449012756e-01 1.5578381717205048e-01</leafValues></_>
    <_>
      <internalNodes>
        0 -1 54694 9.6559803932905197e-03</internalNodes>
      <leafValues>
        -1.1462692916393280e-01 5.5999839305877686e-01</leafValues></_>
    <_>
      <internalNodes>
        0 -1 63154 -4.3092452688142657e-04</internalNodes>
      <leafValues>
        2.7051642537117004e-01 -2.8896072506904602e-01</leafValues></_>
    <_>
      <internalNodes>
        0 -1 53459 -3.7963078357279301e-03</internalNodes>
      <leafValues>
        4.1221693158149719e-01 -1.5909537672996521e-01</leafValues></_>
    <_>
      <internalNodes>
        0 -1 57602 -4.4298823922872543e-03</internalNodes>
      <leafValues>
        3.7921354174613953e-01 -2.0847487449645996e-01</leafValues></_>
    <_>
      <internalNodes>
        0 -1 53291 6.4837280660867691e-03</internalNodes>
      <leafValues>
        1.0607692599296570e-01 -8.4034484624862671e-01</leafValues></_>
    <_>
      <internalNodes>
        0 -1 51783 -5.7397447526454926e-02</internalNodes>
      <leafValues>
        -6.3620728254318237e-01 8.6069419980049133e-02</leafValues></_>
    <_>
      <internalNodes>
        0 -1 64745 3.1429291702806950e-03</internalNodes>
      <leafValues>
        -2.0595873892307281e-01 3.4163549542427063e-01</leafValues></_>
    <_>
      <internalNodes>
        0 -1 57410 7.1000000461935997e-03</internalNodes>
      <leafValues>
        -1.5758477151393890e-01 3.9656606316566467e-01</leafValues></_>
    <_>
      <internalNodes>
        0 -1 70307 6.7825447767972946e-03</internalNodes>
      <leafValues>
        1.0776532441377640e-01 -5.9441936016082764e-01</leafValues></_>
    <_>
      <internalNodes>
        0 -1 31208 -9.4519332051277161e-03</internalNodes>
      <leafValues>
        2.9127922654151917e-01 -2.1645441651344299e-01</leafValues></_>
    <_>
      <internalNodes>
        0 -1 55726 -1.7153279623016715e-03</internalNodes>
      <leafValues>
        -8.0509173870086670e-01 9.0543933212757111e-02</leafValues></_></weakClassifiers></stage9>
</opencv_storage>
