<?xml version="1.0"?>
<opencv_storage>
<stage0>
  <maxWeakCount>5</maxWeakCount>
  <stageThreshold>-1.2564219236373901e+00</stageThreshold>
  <weakClassifiers>
    <_>
      <internalNodes>
        0 -1 46788 9.1537296772003174e-02</internalNodes>
      <leafValues>
        -7.9427081346511841e-01 8.1930416822433472e-01</leafValues></_>
    <_>
      <internalNodes>
        0 -1 57257 -3.8469932042062283e-03</internalNodes>
      <leafValues>
        4.9873816967010498e-01 -8.4345573186874390e-01</leafValues></_>
    <_>
      <internalNodes>
        0 -1 53491 -1.0190658271312714e-02</internalNodes>
      <leafValues>
        3.3546710014343262e-01 -7.7514457702636719e-01</leafValues></_>
    <_>
      <internalNodes>
        0 -1 72822 -1.5566177899017930e-03</internalNodes>
      <leafValues>
        5.0352519750595093e-01 -3.9907354116439819e-01</leafValues></_>
    <_>
      <internalNodes>
        0 -1 9785 2.4100497364997864e-02</internalNodes>
      <leafValues>
        -4.1414791345596313e-01 4.4491109251976013e-01</leafValues></_></weakClassifiers></stage0>
</opencv_storage>
