<?xml version="1.0"?>
<opencv_storage>
<stage1>
  <maxWeakCount>9</maxWeakCount>
  <stageThreshold>-1.2257615327835083e+00</stageThreshold>
  <weakClassifiers>
    <_>
      <internalNodes>
        0 -1 55907 5.8078810572624207e-02</internalNodes>
      <leafValues>
        -7.0086956024169922e-01 6.3443040847778320e-01</leafValues></_>
    <_>
      <internalNodes>
        0 -1 32378 1.8742397427558899e-02</internalNodes>
      <leafValues>
        -3.1984987854957581e-01 6.0414856672286987e-01</leafValues></_>
    <_>
      <internalNodes>
        0 -1 58377 -1.1781527427956462e-03</internalNodes>
      <leafValues>
        -7.6618754863739014e-01 2.7596196532249451e-01</leafValues></_>
    <_>
      <internalNodes>
        0 -1 70451 -1.0690290946513414e-03</internalNodes>
      <leafValues>
        3.0184790492057800e-01 -5.6482130289077759e-01</leafValues></_>
    <_>
      <internalNodes>
        0 -1 53034 6.5766763873398304e-03</internalNodes>
      <leafValues>
        1.5496060252189636e-01 -9.4861549139022827e-01</leafValues></_>
    <_>
      <internalNodes>
        0 -1 57879 -1.5114276669919491e-02</internalNodes>
      <leafValues>
        2.1059626340866089e-01 -6.0922467708587646e-01</leafValues></_>
    <_>
      <internalNodes>
        0 -1 55525 -4.4781226664781570e-02</internalNodes>
      <leafValues>
        -9.0669071674346924e-01 1.5805502235889435e-01</leafValues></_>
    <_>
      <internalNodes>
        0 -1 48702 -5.7862922549247742e-03</internalNodes>
      <leafValues>
        1.6927456855773926e-01 -7.2765022516250610e-01</leafValues></_>
    <_>
      <internalNodes>
        0 -1 9730 8.5804052650928497e-03</internalNodes>
      <leafValues>
        -3.7595888972282410e-01 3.2890275120735168e-01</leafValues></_></weakClassifiers></stage1>
</opencv_storage>
