<?xml version="1.0"?>
<opencv_storage>
<stage3>
  <maxWeakCount>10</maxWeakCount>
  <stageThreshold>-9.8859637975692749e-01</stageThreshold>
  <weakClassifiers>
    <_>
      <internalNodes>
        0 -1 56952 1.5376890078186989e-03</internalNodes>
      <leafValues>
        -2.8605768084526062e-01 6.3329452276229858e-01</leafValues></_>
    <_>
      <internalNodes>
        0 -1 70308 -2.3880898952484131e-03</internalNodes>
      <leafValues>
        3.6847087740898132e-01 -4.4659772515296936e-01</leafValues></_>
    <_>
      <internalNodes>
        0 -1 53400 -3.5815253853797913e-02</internalNodes>
      <leafValues>
        2.1081796288490295e-01 -7.2165185213088989e-01</leafValues></_>
    <_>
      <internalNodes>
        0 -1 32024 2.7484221383929253e-02</internalNodes>
      <leafValues>
        -3.0152955651283264e-01 5.2435380220413208e-01</leafValues></_>
    <_>
      <internalNodes>
        0 -1 61626 3.4583066008053720e-04</internalNodes>
      <leafValues>
        -3.0588153004646301e-01 4.9747008085250854e-01</leafValues></_>
    <_>
      <internalNodes>
        0 -1 51110 -6.3406333327293396e-02</internalNodes>
      <leafValues>
        -8.9260089397430420e-01 1.2197333574295044e-01</leafValues></_>
    <_>
      <internalNodes>
        0 -1 17867 5.0141643732786179e-03</internalNodes>
      <leafValues>
        -2.8255549073219299e-01 4.3140837550163269e-01</leafValues></_>
    <_>
      <internalNodes>
        0 -1 58254 4.0608481504023075e-03</internalNodes>
      <leafValues>
        1.2406020611524582e-01 -8.7603008747100830e-01</leafValues></_>
    <_>
      <internalNodes>
        0 -1 48306 1.3703545555472374e-02</internalNodes>
      <leafValues>
        8.4620706737041473e-02 -9.2123860120773315e-01</leafValues></_>
    <_>
      <internalNodes>
        0 -1 48364 -6.0569137334823608e-02</internalNodes>
      <leafValues>
        -7.2021234035491943e-01 1.0946604609489441e-01</leafValues></_></weakClassifiers></stage3>
</opencv_storage>
