<?xml version="1.0"?>
<opencv_storage>
<cascade>
  <stageType>BOOST</stageType>
  <featureType>HAAR</featureType>
  <height>20</height>
  <width>20</width>
  <stageParams>
    <boostType>GAB</boostType>
    <minHitRate>9.9500000476837158e-01</minHitRate>
    <maxFalseAlarm>5.0000000000000000e-01</maxFalseAlarm>
    <weightTrimRate>9.4999999999999996e-01</weightTrimRate>
    <maxDepth>1</maxDepth>
    <maxWeakCount>100</maxWeakCount></stageParams>
  <featureParams>
    <maxCatCount>0</maxCatCount>
    <featSize>1</featSize>
    <mode>BASIC</mode></featureParams>
  <stageNum>10</stageNum>
  <stages>
    <!-- stage 0 -->
    <_>
      <maxWeakCount>5</maxWeakCount>
      <stageThreshold>-1.2564219236373901e+00</stageThreshold>
      <weakClassifiers>
        <_>
          <internalNodes>
            0 -1 23 9.1537296772003174e-02</internalNodes>
          <leafValues>
            -7.9427081346511841e-01 8.1930416822433472e-01</leafValues></_>
        <_>
          <internalNodes>
            0 -1 76 -3.8469932042062283e-03</internalNodes>
          <leafValues>
            4.9873816967010498e-01 -8.4345573186874390e-01</leafValues></_>
        <_>
          <internalNodes>
            0 -1 58 -1.0190658271312714e-02</internalNodes>
          <leafValues>
            3.3546710014343262e-01 -7.7514457702636719e-01</leafValues></_>
        <_>
          <internalNodes>
            0 -1 123 -1.5566177899017930e-03</internalNodes>
          <leafValues>
            5.0352519750595093e-01 -3.9907354116439819e-01</leafValues></_>
        <_>
          <internalNodes>
            0 -1 1 2.4100497364997864e-02</internalNodes>
          <leafValues>
            -4.1414791345596313e-01 4.4491109251976013e-01</leafValues></_></weakClassifiers></_>
    <!-- stage 1 -->
    <_>
      <maxWeakCount>9</maxWeakCount>
      <stageThreshold>-1.2257615327835083e+00</stageThreshold>
      <weakClassifiers>
        <_>
          <internalNodes>
            0 -1 70 5.8078810572624207e-02</internalNodes>
          <leafValues>
            -7.0086956024169922e-01 6.3443040847778320e-01</leafValues></_>
        <_>
          <internalNodes>
            0 -1 11 1.8742397427558899e-02</internalNodes>
          <leafValues>
            -3.1984987854957581e-01 6.0414856672286987e-01</leafValues></_>
        <_>
          <internalNodes>
            0 -1 94 -1.1781527427956462e-03</internalNodes>
          <leafValues>
            -7.6618754863739014e-01 2.7596196532249451e-01</leafValues></_>
        <_>
          <internalNodes>
            0 -1 120 -1.0690290946513414e-03</internalNodes>
          <leafValues>
            3.0184790492057800e-01 -5.6482130289077759e-01</leafValues></_>
        <_>
          <internalNodes>
            0 -1 49 6.5766763873398304e-03</internalNodes>
          <leafValues>
            1.5496060252189636e-01 -9.4861549139022827e-01</leafValues></_>
        <_>
          <internalNodes>
            0 -1 87 -1.5114276669919491e-02</internalNodes>
          <leafValues>
            2.1059626340866089e-01 -6.0922467708587646e-01</leafValues></_>
        <_>
          <internalNodes>
            0 -1 68 -4.4781226664781570e-02</internalNodes>
          <leafValues>
            -9.0669071674346924e-01 1.5805502235889435e-01</leafValues></_>
        <_>
          <internalNodes>
            0 -1 33 -5.7862922549247742e-03</internalNodes>
          <leafValues>
            1.6927456855773926e-01 -7.2765022516250610e-01</leafValues></_>
        <_>
          <internalNodes>
            0 -1 0 8.5804052650928497e-03</internalNodes>
          <leafValues>
            -3.7595888972282410e-01 3.2890275120735168e-01</leafValues></_></weakClassifiers></_>
    <!-- stage 2 -->
    <_>
      <maxWeakCount>11</maxWeakCount>
      <stageThreshold>-9.3743592500686646e-01</stageThreshold>
      <weakClassifiers>
        <_>
          <internalNodes>
            0 -1 35 -1.1269901879131794e-02</internalNodes>
          <leafValues>
            5.6517410278320312e-01 -5.2962964773178101e-01</leafValues></_>
        <_>
          <internalNodes>
            0 -1 123 -1.3530185678973794e-03</internalNodes>
          <leafValues>
            4.7439906001091003e-01 -4.6428546309471130e-01</leafValues></_>
        <_>
          <internalNodes>
            0 -1 76 -4.9880407750606537e-03</internalNodes>
          <leafValues>
            1.9992792606353760e-01 -8.3069890737533569e-01</leafValues></_>
        <_>
          <internalNodes>
            0 -1 112 1.8260471522808075e-02</internalNodes>
          <leafValues>
            -7.5418919324874878e-01 1.7168773710727692e-01</leafValues></_>
        <_>
          <internalNodes>
            0 -1 108 -5.5381760466843843e-04</internalNodes>
          <leafValues>
            -8.5102647542953491e-01 1.4814232289791107e-01</leafValues></_>
        <_>
          <internalNodes>
            0 -1 13 9.8112039268016815e-03</internalNodes>
          <leafValues>
            -2.5961101055145264e-01 6.0224103927612305e-01</leafValues></_>
        <_>
          <internalNodes>
            0 -1 93 9.2513498384505510e-04</internalNodes>
          <leafValues>
            1.3737092912197113e-01 -8.0313706398010254e-01</leafValues></_>
        <_>
          <internalNodes>
            0 -1 99 -4.0441468358039856e-02</internalNodes>
          <leafValues>
            -8.7914001941680908e-01 1.2088670581579208e-01</leafValues></_>
        <_>
          <internalNodes>
            0 -1 86 -8.9296940714120865e-03</internalNodes>
          <leafValues>
            1.4810863137245178e-01 -7.3219513893127441e-01</leafValues></_>
        <_>
          <internalNodes>
            0 -1 48 7.3996521532535553e-03</internalNodes>
          <leafValues>
            1.7238427698612213e-01 -6.3086861371994019e-01</leafValues></_>
        <_>
          <internalNodes>
            0 -1 92 -6.5668777097016573e-04</internalNodes>
          <leafValues>
            -7.1699410676956177e-01 1.5808963775634766e-01</leafValues></_></weakClassifiers></_>
    <!-- stage 3 -->
    <_>
      <maxWeakCount>10</maxWeakCount>
      <stageThreshold>-9.8859637975692749e-01</stageThreshold>
      <weakClassifiers>
        <_>
          <internalNodes>
            0 -1 72 1.5376890078186989e-03</internalNodes>
          <leafValues>
            -2.8605768084526062e-01 6.3329452276229858e-01</leafValues></_>
        <_>
          <internalNodes>
            0 -1 118 -2.3880898952484131e-03</internalNodes>
          <leafValues>
            3.6847087740898132e-01 -4.4659772515296936e-01</leafValues></_>
        <_>
          <internalNodes>
            0 -1 55 -3.5815253853797913e-02</internalNodes>
          <leafValues>
            2.1081796288490295e-01 -7.2165185213088989e-01</leafValues></_>
        <_>
          <internalNodes>
            0 -1 10 2.7484221383929253e-02</internalNodes>
          <leafValues>
            -3.0152955651283264e-01 5.2435380220413208e-01</leafValues></_>
        <_>
          <internalNodes>
            0 -1 106 3.4583066008053720e-04</internalNodes>
          <leafValues>
            -3.0588153004646301e-01 4.9747008085250854e-01</leafValues></_>
        <_>
          <internalNodes>
            0 -1 41 -6.3406333327293396e-02</internalNodes>
          <leafValues>
            -8.9260089397430420e-01 1.2197333574295044e-01</leafValues></_>
        <_>
          <internalNodes>
            0 -1 3 5.0141643732786179e-03</internalNodes>
          <leafValues>
            -2.8255549073219299e-01 4.3140837550163269e-01</leafValues></_>
        <_>
          <internalNodes>
            0 -1 91 4.0608481504023075e-03</internalNodes>
          <leafValues>
            1.2406020611524582e-01 -8.7603008747100830e-01</leafValues></_>
        <_>
          <internalNodes>
            0 -1 26 1.3703545555472374e-02</internalNodes>
          <leafValues>
            8.4620706737041473e-02 -9.2123860120773315e-01</leafValues></_>
        <_>
          <internalNodes>
            0 -1 28 -6.0569137334823608e-02</internalNodes>
          <leafValues>
            -7.2021234035491943e-01 1.0946604609489441e-01</leafValues></_></weakClassifiers></_>
    <!-- stage 4 -->
    <_>
      <maxWeakCount>15</maxWeakCount>
      <stageThreshold>-1.0144180059432983e+00</stageThreshold>
      <weakClassifiers>
        <_>
          <internalNodes>
            0 -1 15 6.2432605773210526e-03</internalNodes>
          <leafValues>
            -4.4554454088211060e-01 5.2567237615585327e-01</leafValues></_>
        <_>
          <internalNodes>
            0 -1 93 -6.6075974609702826e-04</internalNodes>
          <leafValues>
            -7.5411140918731689e-01 2.2684672474861145e-01</leafValues></_>
        <_>
          <internalNodes>
            0 -1 30 -4.3067773804068565e-03</internalNodes>
          <leafValues>
            5.0132489204406738e-01 -2.6990789175033569e-01</leafValues></_>
        <_>
          <internalNodes>
            0 -1 107 5.4914061911404133e-04</internalNodes>
          <leafValues>
            1.6304862499237061e-01 -7.2469526529312134e-01</leafValues></_>
        <_>
          <internalNodes>
            0 -1 121 -1.8606659723445773e-03</internalNodes>
          <leafValues>
            2.2055865824222565e-01 -4.3820968270301819e-01</leafValues></_>
        <_>
          <internalNodes>
            0 -1 56 -4.4260188005864620e-03</internalNodes>
          <leafValues>
            1.7344036698341370e-01 -6.9913178682327271e-01</leafValues></_>
        <_>
          <internalNodes>
            0 -1 108 6.1883905436843634e-04</internalNodes>
          <leafValues>
            1.0225742310285568e-01 -7.6744687557220459e-01</leafValues></_>
        <_>
          <internalNodes>
            0 -1 120 -1.7246701754629612e-03</internalNodes>
          <leafValues>
            2.1419969201087952e-01 -4.4201457500457764e-01</leafValues></_>
        <_>
          <internalNodes>
            0 -1 101 2.7936873957514763e-03</internalNodes>
          <leafValues>
            -2.4712125957012177e-01 4.1457119584083557e-01</leafValues></_>
        <_>
          <internalNodes>
            0 -1 52 7.0461807772517204e-03</internalNodes>
          <leafValues>
            1.1512471735477448e-01 -9.3090599775314331e-01</leafValues></_>
        <_>
          <internalNodes>
            0 -1 71 6.8547361297532916e-04</internalNodes>
          <leafValues>
            -4.3127599358558655e-01 2.2587740421295166e-01</leafValues></_>
        <_>
          <internalNodes>
            0 -1 80 -2.1548653021454811e-02</internalNodes>
          <leafValues>
            -5.7259303331375122e-01 1.8645566701889038e-01</leafValues></_>
        <_>
          <internalNodes>
            0 -1 100 -9.0684164315462112e-03</internalNodes>
          <leafValues>
            6.5016858279705048e-02 -8.4374243021011353e-01</leafValues></_>
        <_>
          <internalNodes>
            0 -1 5 4.7418018803000450e-03</internalNodes>
          <leafValues>
            -2.5757101178169250e-01 3.8235083222389221e-01</leafValues></_>
        <_>
          <internalNodes>
            0 -1 27 -2.5921648368239403e-02</internalNodes>
          <leafValues>
            -8.1203866004943848e-01 1.5106956660747528e-01</leafValues></_></weakClassifiers></_>
    <!-- stage 5 -->
    <_>
      <maxWeakCount>13</maxWeakCount>
      <stageThreshold>-7.4138915538787842e-01</stageThreshold>
      <weakClassifiers>
        <_>
          <internalNodes>
            0 -1 109 -7.3720235377550125e-04</internalNodes>
          <leafValues>
            -5.6213015317916870e-01 4.7016274929046631e-01</leafValues></_>
        <_>
          <internalNodes>
            0 -1 2 1.0889527946710587e-01</internalNodes>
          <leafValues>
            -3.5610809922218323e-01 3.7724640965461731e-01</leafValues></_>
        <_>
          <internalNodes>
            0 -1 62 2.2370875813066959e-03</internalNodes>
          <leafValues>
            -2.1021437644958496e-01 5.4049563407897949e-01</leafValues></_>
        <_>
          <internalNodes>
            0 -1 61 -1.5450054779648781e-03</internalNodes>
          <leafValues>
            4.5840939879417419e-01 -2.5887387990951538e-01</leafValues></_>
        <_>
          <internalNodes>
            0 -1 42 -1.1935782385990024e-03</internalNodes>
          <leafValues>
            -7.7894961833953857e-01 1.5863445401191711e-01</leafValues></_>
        <_>
          <internalNodes>
            0 -1 66 3.4624501131474972e-03</internalNodes>
          <leafValues>
            -6.7732203006744385e-01 1.2486030161380768e-01</leafValues></_>
        <_>
          <internalNodes>
            0 -1 18 3.3229934051632881e-03</internalNodes>
          <leafValues>
            -2.2498102486133575e-01 4.8816561698913574e-01</leafValues></_>
        <_>
          <internalNodes>
            0 -1 115 1.2711054878309369e-03</internalNodes>
          <leafValues>
            9.5267944037914276e-02 -7.9791092872619629e-01</leafValues></_>
        <_>
          <internalNodes>
            0 -1 17 -5.3946664556860924e-03</internalNodes>
          <leafValues>
            -8.1786733865737915e-01 9.1596566140651703e-02</leafValues></_>
        <_>
          <internalNodes>
            0 -1 95 -7.1675603976473212e-04</internalNodes>
          <leafValues>
            -6.8826180696487427e-01 1.2524634599685669e-01</leafValues></_>
        <_>
          <internalNodes>
            0 -1 97 1.1249849200248718e-01</internalNodes>
          <leafValues>
            1.2614281475543976e-01 -6.4852857589721680e-01</leafValues></_>
        <_>
          <internalNodes>
            0 -1 22 1.1970704421401024e-02</internalNodes>
          <leafValues>
            -2.0035889744758606e-01 4.7984570264816284e-01</leafValues></_>
        <_>
          <internalNodes>
            0 -1 4 -3.0807578936219215e-02</internalNodes>
          <leafValues>
            5.9524798393249512e-01 -2.2507178783416748e-01</leafValues></_></weakClassifiers></_>
    <!-- stage 6 -->
    <_>
      <maxWeakCount>18</maxWeakCount>
      <stageThreshold>-9.7942763566970825e-01</stageThreshold>
      <weakClassifiers>
        <_>
          <internalNodes>
            0 -1 69 -1.1648254003375769e-03</internalNodes>
          <leafValues>
            -6.7441862821578979e-01 4.6820810437202454e-01</leafValues></_>
        <_>
          <internalNodes>
            0 -1 83 8.3178011700510979e-03</internalNodes>
          <leafValues>
            -1.8790054321289062e-01 6.1879634857177734e-01</leafValues></_>
        <_>
          <internalNodes>
            0 -1 82 -4.3970602564513683e-03</internalNodes>
          <leafValues>
            5.9316438436508179e-01 -1.8791936337947845e-01</leafValues></_>
        <_>
          <internalNodes>
            0 -1 69 1.2494684197008610e-03</internalNodes>
          <leafValues>
            2.1985965967178345e-01 -7.7757281064987183e-01</leafValues></_>
        <_>
          <internalNodes>
            0 -1 21 7.0449220947921276e-04</internalNodes>
          <leafValues>
            -4.0267893671989441e-01 2.3064330220222473e-01</leafValues></_>
        <_>
          <internalNodes>
            0 -1 25 1.6001831740140915e-02</internalNodes>
          <leafValues>
            -8.0876708030700684e-01 1.1904811114072800e-01</leafValues></_>
        <_>
          <internalNodes>
            0 -1 59 -2.1354961208999157e-03</internalNodes>
          <leafValues>
            3.7059989571571350e-01 -2.9713940620422363e-01</leafValues></_>
        <_>
          <internalNodes>
            0 -1 6 3.3170469105243683e-03</internalNodes>
          <leafValues>
            -2.1739660203456879e-01 4.3246045708656311e-01</leafValues></_>
        <_>
          <internalNodes>
            0 -1 95 1.1061643017455935e-03</internalNodes>
          <leafValues>
            1.8607705831527710e-01 -5.9569823741912842e-01</leafValues></_>
        <_>
          <internalNodes>
            0 -1 77 -8.8842967525124550e-03</internalNodes>
          <leafValues>
            7.8470095992088318e-02 -6.5711098909378052e-01</leafValues></_>
        <_>
          <internalNodes>
            0 -1 19 1.6960782930254936e-02</internalNodes>
          <leafValues>
            1.2104762345552444e-01 -7.4116492271423340e-01</leafValues></_>
        <_>
          <internalNodes>
            0 -1 54 1.1484309099614620e-02</internalNodes>
          <leafValues>
            6.9834545254707336e-02 -8.4882032871246338e-01</leafValues></_>
        <_>
          <internalNodes>
            0 -1 89 -2.5329061318188906e-03</internalNodes>
          <leafValues>
            -7.0210331678390503e-01 1.0242217034101486e-01</leafValues></_>
        <_>
          <internalNodes>
            0 -1 44 -1.5136212110519409e-01</internalNodes>
          <leafValues>
            -8.0096304416656494e-01 8.0096028745174408e-02</leafValues></_>
        <_>
          <internalNodes>
            0 -1 86 -9.0316189453005791e-03</internalNodes>
          <leafValues>
            1.0493607819080353e-01 -7.1376854181289673e-01</leafValues></_>
        <_>
          <internalNodes>
            0 -1 37 -3.1713591888546944e-03</internalNodes>
          <leafValues>
            3.8148531317710876e-01 -2.1308304369449615e-01</leafValues></_>
        <_>
          <internalNodes>
            0 -1 47 5.5796038359403610e-02</internalNodes>
          <leafValues>
            1.4189726114273071e-01 -6.9972091913223267e-01</leafValues></_>
        <_>
          <internalNodes>
            0 -1 47 3.0169184319674969e-03</internalNodes>
          <leafValues>
            -7.9443365335464478e-01 9.1456189751625061e-02</leafValues></_></weakClassifiers></_>
    <!-- stage 7 -->
    <_>
      <maxWeakCount>16</maxWeakCount>
      <stageThreshold>-9.3838614225387573e-01</stageThreshold>
      <weakClassifiers>
        <_>
          <internalNodes>
            0 -1 114 1.0561091825366020e-02</internalNodes>
          <leafValues>
            4.3160203844308853e-02 6.6863906383514404e-01</leafValues></_>
        <_>
          <internalNodes>
            0 -1 14 6.5355324186384678e-03</internalNodes>
          <leafValues>
            -1.9438929855823517e-01 5.1052957773208618e-01</leafValues></_>
        <_>
          <internalNodes>
            0 -1 85 -2.8228904120624065e-03</internalNodes>
          <leafValues>
            4.0455520153045654e-01 -2.2346767783164978e-01</leafValues></_>
        <_>
          <internalNodes>
            0 -1 116 -1.5017248224467039e-03</internalNodes>
          <leafValues>
            1.4361059665679932e-01 -4.8952496051788330e-01</leafValues></_>
        <_>
          <internalNodes>
            0 -1 79 -1.0823011398315430e-02</internalNodes>
          <leafValues>
            -7.0732051134109497e-01 1.0096479952335358e-01</leafValues></_>
        <_>
          <internalNodes>
            0 -1 73 -1.1318301549181342e-03</internalNodes>
          <leafValues>
            1.1064494401216507e-01 -7.0672327280044556e-01</leafValues></_>
        <_>
          <internalNodes>
            0 -1 50 -4.0295543149113655e-03</internalNodes>
          <leafValues>
            4.7051537036895752e-01 -2.1555259823799133e-01</leafValues></_>
        <_>
          <internalNodes>
            0 -1 60 2.6468641590327024e-03</internalNodes>
          <leafValues>
            -2.2902031242847443e-01 5.4376924037933350e-01</leafValues></_>
        <_>
          <internalNodes>
            0 -1 92 5.9369363589212298e-04</internalNodes>
          <leafValues>
            1.4283525943756104e-01 -7.7031046152114868e-01</leafValues></_>
        <_>
          <internalNodes>
            0 -1 51 -1.1743321083486080e-02</internalNodes>
          <leafValues>
            -6.2231373786926270e-01 1.2890011072158813e-01</leafValues></_>
        <_>
          <internalNodes>
            0 -1 92 -3.1442311592400074e-04</internalNodes>
          <leafValues>
            -5.9275811910629272e-01 1.4753952622413635e-01</leafValues></_>
        <_>
          <internalNodes>
            0 -1 40 -3.1220437958836555e-02</internalNodes>
          <leafValues>
            -8.8864022493362427e-01 8.2556426525115967e-02</leafValues></_>
        <_>
          <internalNodes>
            0 -1 43 -2.3126587620936334e-04</internalNodes>
          <leafValues>
            2.4018152058124542e-01 -3.0271625518798828e-01</leafValues></_>
        <_>
          <internalNodes>
            0 -1 96 -1.4565347228199244e-03</internalNodes>
          <leafValues>
            5.0946867465972900e-01 -1.5697230398654938e-01</leafValues></_>
        <_>
          <internalNodes>
            0 -1 105 -1.6726613976061344e-03</internalNodes>
          <leafValues>
            4.4731715321540833e-01 -1.5433374047279358e-01</leafValues></_>
        <_>
          <internalNodes>
            0 -1 102 1.6930248821154237e-03</internalNodes>
          <leafValues>
            -2.2349904477596283e-01 4.6570879220962524e-01</leafValues></_></weakClassifiers></_>
    <!-- stage 8 -->
    <_>
      <maxWeakCount>22</maxWeakCount>
      <stageThreshold>-8.6645913124084473e-01</stageThreshold>
      <weakClassifiers>
        <_>
          <internalNodes>
            0 -1 39 4.7432709834538400e-04</internalNodes>
          <leafValues>
            -1.2131919711828232e-01 5.6025868654251099e-01</leafValues></_>
        <_>
          <internalNodes>
            0 -1 89 2.6685376651585102e-03</internalNodes>
          <leafValues>
            1.6757161915302277e-01 -7.4672812223434448e-01</leafValues></_>
        <_>
          <internalNodes>
            0 -1 122 -1.1107182363048196e-03</internalNodes>
          <leafValues>
            2.8855448961257935e-01 -3.1053018569946289e-01</leafValues></_>
        <_>
          <internalNodes>
            0 -1 84 -3.1835455447435379e-03</internalNodes>
          <leafValues>
            1.1414720118045807e-01 -7.4845558404922485e-01</leafValues></_>
        <_>
          <internalNodes>
            0 -1 26 7.7528282999992371e-03</internalNodes>
          <leafValues>
            9.7416065633296967e-02 -7.0375370979309082e-01</leafValues></_>
        <_>
          <internalNodes>
            0 -1 74 1.5032821102067828e-03</internalNodes>
          <leafValues>
            -3.0798122286796570e-01 2.6821812987327576e-01</leafValues></_>
        <_>
          <internalNodes>
            0 -1 42 9.4236969016492367e-04</internalNodes>
          <leafValues>
            1.4401873946189880e-01 -5.2812653779983521e-01</leafValues></_>
        <_>
          <internalNodes>
            0 -1 16 -1.8814548850059509e-02</internalNodes>
          <leafValues>
            -7.1727037429809570e-01 9.4078809022903442e-02</leafValues></_>
        <_>
          <internalNodes>
            0 -1 46 -8.9030468370765448e-04</internalNodes>
          <leafValues>
            3.8125374913215637e-01 -1.9489261507987976e-01</leafValues></_>
        <_>
          <internalNodes>
            0 -1 34 7.6671177521348000e-04</internalNodes>
          <leafValues>
            -2.2253130376338959e-01 3.5505974292755127e-01</leafValues></_>
        <_>
          <internalNodes>
            0 -1 12 -3.5217106342315674e-03</internalNodes>
          <leafValues>
            4.0429165959358215e-01 -1.9709002971649170e-01</leafValues></_>
        <_>
          <internalNodes>
            0 -1 104 4.5268456451594830e-03</internalNodes>
          <leafValues>
            1.2191435694694519e-01 -7.3497325181961060e-01</leafValues></_>
        <_>
          <internalNodes>
            0 -1 103 2.1769120357930660e-03</internalNodes>
          <leafValues>
            -1.8980778753757477e-01 3.8173812627792358e-01</leafValues></_>
        <_>
          <internalNodes>
            0 -1 90 -4.0443532634526491e-04</internalNodes>
          <leafValues>
            -2.6491990685462952e-01 2.5507465004920959e-01</leafValues></_>
        <_>
          <internalNodes>
            0 -1 88 1.9628372974693775e-03</internalNodes>
          <leafValues>
            -1.4396907389163971e-01 5.8182036876678467e-01</leafValues></_>
        <_>
          <internalNodes>
            0 -1 67 1.6040343791246414e-02</internalNodes>
          <leafValues>
            1.0043042898178101e-01 -8.1802761554718018e-01</leafValues></_>
        <_>
          <internalNodes>
            0 -1 81 5.5689670145511627e-02</internalNodes>
          <leafValues>
            6.2975250184535980e-02 -8.5090738534927368e-01</leafValues></_>
        <_>
          <internalNodes>
            0 -1 63 -2.5406796485185623e-03</internalNodes>
          <leafValues>
            2.9702046513557434e-01 -2.3479054868221283e-01</leafValues></_>
        <_>
          <internalNodes>
            0 -1 29 -3.0278470367193222e-03</internalNodes>
          <leafValues>
            3.9179277420043945e-01 -1.6554889082908630e-01</leafValues></_>
        <_>
          <internalNodes>
            0 -1 24 2.2715337574481964e-02</internalNodes>
          <leafValues>
            1.1911831796169281e-01 -6.2599557638168335e-01</leafValues></_>
        <_>
          <internalNodes>
            0 -1 110 -3.4270875155925751e-02</internalNodes>
          <leafValues>
            -8.5495120286941528e-01 6.2273912131786346e-02</leafValues></_>
        <_>
          <internalNodes>
            0 -1 8 -1.0904606897383928e-03</internalNodes>
          <leafValues>
            4.1850885748863220e-01 -1.7461407184600830e-01</leafValues></_></weakClassifiers></_>
    <!-- stage 9 -->
    <_>
      <maxWeakCount>22</maxWeakCount>
      <stageThreshold>-9.6242195367813110e-01</stageThreshold>
      <weakClassifiers>
        <_>
          <internalNodes>
            0 -1 90 9.1873563360422850e-04</internalNodes>
          <leafValues>
            4.1825902462005615e-01 -6.9230771064758301e-01</leafValues></_>
        <_>
          <internalNodes>
            0 -1 64 7.2562252171337605e-04</internalNodes>
          <leafValues>
            -3.4830370545387268e-01 3.5372993350028992e-01</leafValues></_>
        <_>
          <internalNodes>
            0 -1 31 3.0034519731998444e-03</internalNodes>
          <leafValues>
            -3.2630157470703125e-01 3.0293565988540649e-01</leafValues></_>
        <_>
          <internalNodes>
            0 -1 36 2.1467462182044983e-02</internalNodes>
          <leafValues>
            -2.5283962488174438e-01 3.6072954535484314e-01</leafValues></_>
        <_>
          <internalNodes>
            0 -1 38 -3.9344187825918198e-04</internalNodes>
          <leafValues>
            -2.9744079709053040e-01 3.1336101889610291e-01</leafValues></_>
        <_>
          <internalNodes>
            0 -1 9 7.2769364342093468e-03</internalNodes>
          <leafValues>
            -1.7734582722187042e-01 4.7600224614143372e-01</leafValues></_>
        <_>
          <internalNodes>
            0 -1 32 4.5855544507503510e-02</internalNodes>
          <leafValues>
            1.3337384164333344e-01 -5.6125354766845703e-01</leafValues></_>
        <_>
          <internalNodes>
            0 -1 20 5.9692123613785952e-05</internalNodes>
          <leafValues>
            -2.1552944183349609e-01 3.9530685544013977e-01</leafValues></_>
        <_>
          <internalNodes>
            0 -1 98 -9.8398281261324883e-04</internalNodes>
          <leafValues>
            -5.7746088504791260e-01 1.5019291639328003e-01</leafValues></_>
        <_>
          <internalNodes>
            0 -1 119 -3.8863904774188995e-04</internalNodes>
          <leafValues>
            1.8396811187267303e-01 -4.3199729919433594e-01</leafValues></_>
        <_>
          <internalNodes>
            0 -1 75 6.3163228332996368e-03</internalNodes>
          <leafValues>
            -4.7101226449012756e-01 1.5578381717205048e-01</leafValues></_>
        <_>
          <internalNodes>
            0 -1 65 9.6559803932905197e-03</internalNodes>
          <leafValues>
            -1.1462692916393280e-01 5.5999839305877686e-01</leafValues></_>
        <_>
          <internalNodes>
            0 -1 111 -4.3092452688142657e-04</internalNodes>
          <leafValues>
            2.7051642537117004e-01 -2.8896072506904602e-01</leafValues></_>
        <_>
          <internalNodes>
            0 -1 57 -3.7963078357279301e-03</internalNodes>
          <leafValues>
            4.1221693158149719e-01 -1.5909537672996521e-01</leafValues></_>
        <_>
          <internalNodes>
            0 -1 83 -4.4298823922872543e-03</internalNodes>
          <leafValues>
            3.7921354174613953e-01 -2.0847487449645996e-01</leafValues></_>
        <_>
          <internalNodes>
            0 -1 53 6.4837280660867691e-03</internalNodes>
          <leafValues>
            1.0607692599296570e-01 -8.4034484624862671e-01</leafValues></_>
        <_>
          <internalNodes>
            0 -1 45 -5.7397447526454926e-02</internalNodes>
          <leafValues>
            -6.3620728254318237e-01 8.6069419980049133e-02</leafValues></_>
        <_>
          <internalNodes>
            0 -1 113 3.1429291702806950e-03</internalNodes>
          <leafValues>
            -2.0595873892307281e-01 3.4163549542427063e-01</leafValues></_>
        <_>
          <internalNodes>
            0 -1 78 7.1000000461935997e-03</internalNodes>
          <leafValues>
            -1.5758477151393890e-01 3.9656606316566467e-01</leafValues></_>
        <_>
          <internalNodes>
            0 -1 117 6.7825447767972946e-03</internalNodes>
          <leafValues>
            1.0776532441377640e-01 -5.9441936016082764e-01</leafValues></_>
        <_>
          <internalNodes>
            0 -1 7 -9.4519332051277161e-03</internalNodes>
          <leafValues>
            2.9127922654151917e-01 -2.1645441651344299e-01</leafValues></_>
        <_>
          <internalNodes>
            0 -1 69 -1.7153279623016715e-03</internalNodes>
          <leafValues>
            -8.0509173870086670e-01 9.0543933212757111e-02</leafValues></_></weakClassifiers></_></stages>
  <features>
    <_>
      <rects>
        <_>
          1 3 6 8 -1.</_>
        <_>
          1 3 3 4 2.</_>
        <_>
          4 7 3 4 2.</_></rects>
      <tilted>0</tilted></_>
    <_>
      <rects>
        <_>
          1 3 8 8 -1.</_>
        <_>
          1 3 4 4 2.</_>
        <_>
          5 7 4 4 2.</_></rects>
      <tilted>0</tilted></_>
    <_>
      <rects>
        <_>
          1 8 15 6 -1.</_>
        <_>
          6 8 5 6 3.</_></rects>
      <tilted>0</tilted></_>
    <_>
      <rects>
        <_>
          2 5 4 4 -1.</_>
        <_>
          2 5 2 2 2.</_>
        <_>
          4 7 2 2 2.</_></rects>
      <tilted>0</tilted></_>
    <_>
      <rects>
        <_>
          4 0 10 4 -1.</_>
        <_>
          4 2 10 2 2.</_></rects>
      <tilted>0</tilted></_>
    <_>
      <rects>
        <_>
          4 3 4 4 -1.</_>
        <_>
          4 3 2 2 2.</_>
        <_>
          6 5 2 2 2.</_></rects>
      <tilted>0</tilted></_>
    <_>
      <rects>
        <_>
          4 5 4 2 -1.</_>
        <_>
          4 5 2 1 2.</_>
        <_>
          6 6 2 1 2.</_></rects>
      <tilted>0</tilted></_>
    <_>
      <rects>
        <_>
          4 6 3 11 -1.</_>
        <_>
          5 6 1 11 3.</_></rects>
      <tilted>0</tilted></_>
    <_>
      <rects>
        <_>
          4 7 2 2 -1.</_>
        <_>
          4 7 1 1 2.</_>
        <_>
          5 8 1 1 2.</_></rects>
      <tilted>0</tilted></_>
    <_>
      <rects>
        <_>
          4 8 2 3 -1.</_>
        <_>
          5 8 1 3 2.</_></rects>
      <tilted>0</tilted></_>
    <_>
      <rects>
        <_>
          4 8 4 6 -1.</_>
        <_>
          6 8 2 6 2.</_></rects>
      <tilted>0</tilted></_>
    <_>
      <rects>
        <_>
          4 9 4 5 -1.</_>
        <_>
          6 9 2 5 2.</_></rects>
      <tilted>0</tilted></_>
    <_>
      <rects>
        <_>
          5 8 6 2 -1.</_>
        <_>
          5 8 3 1 2.</_>
        <_>
          8 9 3 1 2.</_></rects>
      <tilted>0</tilted></_>
    <_>
      <rects>
        <_>
          5 9 3 4 -1.</_>
        <_>
          6 9 1 4 3.</_></rects>
      <tilted>0</tilted></_>
    <_>
      <rects>
        <_>
          5 10 2 3 -1.</_>
        <_>
          6 10 1 3 2.</_></rects>
      <tilted>0</tilted></_>
    <_>
      <rects>
        <_>
          5 11 9 3 -1.</_>
        <_>
          8 11 3 3 3.</_></rects>
      <tilted>0</tilted></_>
    <_>
      <rects>
        <_>
          6 7 6 7 -1.</_>
        <_>
          9 7 3 7 2.</_></rects>
      <tilted>0</tilted></_>
    <_>
      <rects>
        <_>
          6 8 9 3 -1.</_>
        <_>
          9 8 3 3 3.</_></rects>
      <tilted>0</tilted></_>
    <_>
      <rects>
        <_>
          6 10 2 4 -1.</_>
        <_>
          6 10 1 2 2.</_>
        <_>
          7 12 1 2 2.</_></rects>
      <tilted>0</tilted></_>
    <_>
      <rects>
        <_>
          6 10 9 1 -1.</_>
        <_>
          9 10 3 1 3.</_></rects>
      <tilted>0</tilted></_>
    <_>
      <rects>
        <_>
          6 13 3 2 -1.</_>
        <_>
          6 14 3 1 2.</_></rects>
      <tilted>0</tilted></_>
    <_>
      <rects>
        <_>
          6 15 4 2 -1.</_>
        <_>
          8 15 2 2 2.</_></rects>
      <tilted>0</tilted></_>
    <_>
      <rects>
        <_>
          7 0 5 6 -1.</_>
        <_>
          7 2 5 2 3.</_></rects>
      <tilted>0</tilted></_>
    <_>
      <rects>
        <_>
          7 3 7 15 -1.</_>
        <_>
          7 8 7 5 3.</_></rects>
      <tilted>0</tilted></_>
    <_>
      <rects>
        <_>
          7 7 6 4 -1.</_>
        <_>
          9 7 2 4 3.</_></rects>
      <tilted>0</tilted></_>
    <_>
      <rects>
        <_>
          7 7 6 9 -1.</_>
        <_>
          7 10 6 3 3.</_></rects>
      <tilted>0</tilted></_>
    <_>
      <rects>
        <_>
          7 8 6 3 -1.</_>
        <_>
          10 8 3 3 2.</_></rects>
      <tilted>0</tilted></_>
    <_>
      <rects>
        <_>
          7 8 9 7 -1.</_>
        <_>
          10 8 3 7 3.</_></rects>
      <tilted>0</tilted></_>
    <_>
      <rects>
        <_>
          7 8 8 7 -1.</_>
        <_>
          11 8 4 7 2.</_></rects>
      <tilted>0</tilted></_>
    <_>
      <rects>
        <_>
          7 9 2 4 -1.</_>
        <_>
          7 9 1 2 2.</_>
        <_>
          8 11 1 2 2.</_></rects>
      <tilted>0</tilted></_>
    <_>
      <rects>
        <_>
          7 9 3 4 -1.</_>
        <_>
          8 9 1 4 3.</_></rects>
      <tilted>0</tilted></_>
    <_>
      <rects>
        <_>
          7 9 6 1 -1.</_>
        <_>
          9 9 2 1 3.</_></rects>
      <tilted>0</tilted></_>
    <_>
      <rects>
        <_>
          7 9 9 5 -1.</_>
        <_>
          10 9 3 5 3.</_></rects>
      <tilted>0</tilted></_>
    <_>
      <rects>
        <_>
          7 9 8 6 -1.</_>
        <_>
          7 12 8 3 2.</_></rects>
      <tilted>0</tilted></_>
    <_>
      <rects>
        <_>
          7 10 2 4 -1.</_>
        <_>
          7 12 2 2 2.</_></rects>
      <tilted>0</tilted></_>
    <_>
      <rects>
        <_>
          7 10 2 8 -1.</_>
        <_>
          7 14 2 4 2.</_></rects>
      <tilted>0</tilted></_>
    <_>
      <rects>
        <_>
          7 10 4 6 -1.</_>
        <_>
          7 12 4 2 3.</_></rects>
      <tilted>0</tilted></_>
    <_>
      <rects>
        <_>
          7 11 4 3 -1.</_>
        <_>
          7 12 4 1 3.</_></rects>
      <tilted>0</tilted></_>
    <_>
      <rects>
        <_>
          7 14 4 2 -1.</_>
        <_>
          7 15 4 1 2.</_></rects>
      <tilted>0</tilted></_>
    <_>
      <rects>
        <_>
          7 15 4 3 -1.</_>
        <_>
          9 15 2 3 2.</_></rects>
      <tilted>0</tilted></_>
    <_>
      <rects>
        <_>
          8 2 2 16 -1.</_>
        <_>
          8 10 2 8 2.</_></rects>
      <tilted>0</tilted></_>
    <_>
      <rects>
        <_>
          8 2 5 16 -1.</_>
        <_>
          8 10 5 8 2.</_></rects>
      <tilted>0</tilted></_>
    <_>
      <rects>
        <_>
          8 3 3 1 -1.</_>
        <_>
          9 3 1 1 3.</_></rects>
      <tilted>0</tilted></_>
    <_>
      <rects>
        <_>
          8 3 3 2 -1.</_>
        <_>
          8 4 3 1 2.</_></rects>
      <tilted>0</tilted></_>
    <_>
      <rects>
        <_>
          8 3 8 16 -1.</_>
        <_>
          8 11 8 8 2.</_></rects>
      <tilted>0</tilted></_>
    <_>
      <rects>
        <_>
          8 4 6 14 -1.</_>
        <_>
          11 4 3 14 2.</_></rects>
      <tilted>0</tilted></_>
    <_>
      <rects>
        <_>
          8 6 2 1 -1.</_>
        <_>
          9 6 1 1 2.</_></rects>
      <tilted>0</tilted></_>
    <_>
      <rects>
        <_>
          8 6 3 9 -1.</_>
        <_>
          8 9 3 3 3.</_></rects>
      <tilted>0</tilted></_>
    <_>
      <rects>
        <_>
          8 8 3 4 -1.</_>
        <_>
          8 10 3 2 2.</_></rects>
      <tilted>0</tilted></_>
    <_>
      <rects>
        <_>
          8 8 6 6 -1.</_>
        <_>
          11 8 3 6 2.</_></rects>
      <tilted>0</tilted></_>
    <_>
      <rects>
        <_>
          8 9 3 4 -1.</_>
        <_>
          9 9 1 4 3.</_></rects>
      <tilted>0</tilted></_>
    <_>
      <rects>
        <_>
          8 9 6 2 -1.</_>
        <_>
          11 9 3 2 2.</_></rects>
      <tilted>0</tilted></_>
    <_>
      <rects>
        <_>
          8 9 6 3 -1.</_>
        <_>
          11 9 3 3 2.</_></rects>
      <tilted>0</tilted></_>
    <_>
      <rects>
        <_>
          8 9 6 4 -1.</_>
        <_>
          11 9 3 4 2.</_></rects>
      <tilted>0</tilted></_>
    <_>
      <rects>
        <_>
          8 9 4 4 -1.</_>
        <_>
          8 11 4 2 2.</_></rects>
      <tilted>0</tilted></_>
    <_>
      <rects>
        <_>
          8 9 7 8 -1.</_>
        <_>
          8 13 7 4 2.</_></rects>
      <tilted>0</tilted></_>
    <_>
      <rects>
        <_>
          8 10 1 8 -1.</_>
        <_>
          8 14 1 4 2.</_></rects>
      <tilted>0</tilted></_>
    <_>
      <rects>
        <_>
          8 10 3 4 -1.</_>
        <_>
          9 10 1 4 3.</_></rects>
      <tilted>0</tilted></_>
    <_>
      <rects>
        <_>
          8 10 2 8 -1.</_>
        <_>
          8 14 2 4 2.</_></rects>
      <tilted>0</tilted></_>
    <_>
      <rects>
        <_>
          8 10 3 3 -1.</_>
        <_>
          8 11 3 1 3.</_></rects>
      <tilted>0</tilted></_>
    <_>
      <rects>
        <_>
          8 11 3 1 -1.</_>
        <_>
          9 11 1 1 3.</_></rects>
      <tilted>0</tilted></_>
    <_>
      <rects>
        <_>
          8 11 1 3 -1.</_>
        <_>
          8 12 1 1 3.</_></rects>
      <tilted>0</tilted></_>
    <_>
      <rects>
        <_>
          8 11 3 2 -1.</_>
        <_>
          8 12 3 1 2.</_></rects>
      <tilted>0</tilted></_>
    <_>
      <rects>
        <_>
          8 12 4 3 -1.</_>
        <_>
          8 13 4 1 3.</_></rects>
      <tilted>0</tilted></_>
    <_>
      <rects>
        <_>
          8 15 6 2 -1.</_>
        <_>
          10 15 2 2 3.</_></rects>
      <tilted>0</tilted></_>
    <_>
      <rects>
        <_>
          9 0 2 4 -1.</_>
        <_>
          9 2 2 2 2.</_></rects>
      <tilted>0</tilted></_>
    <_>
      <rects>
        <_>
          9 2 2 8 -1.</_>
        <_>
          9 6 2 4 2.</_></rects>
      <tilted>0</tilted></_>
    <_>
      <rects>
        <_>
          9 2 4 12 -1.</_>
        <_>
          11 2 2 12 2.</_></rects>
      <tilted>0</tilted></_>
    <_>
      <rects>
        <_>
          9 2 3 16 -1.</_>
        <_>
          9 10 3 8 2.</_></rects>
      <tilted>0</tilted></_>
    <_>
      <rects>
        <_>
          9 3 3 1 -1.</_>
        <_>
          10 3 1 1 3.</_></rects>
      <tilted>0</tilted></_>
    <_>
      <rects>
        <_>
          9 3 4 15 -1.</_>
        <_>
          9 8 4 5 3.</_></rects>
      <tilted>0</tilted></_>
    <_>
      <rects>
        <_>
          9 7 1 2 -1.</_>
        <_>
          9 8 1 1 2.</_></rects>
      <tilted>0</tilted></_>
    <_>
      <rects>
        <_>
          9 7 2 2 -1.</_>
        <_>
          9 8 2 1 2.</_></rects>
      <tilted>0</tilted></_>
    <_>
      <rects>
        <_>
          9 8 1 8 -1.</_>
        <_>
          9 12 1 4 2.</_></rects>
      <tilted>0</tilted></_>
    <_>
      <rects>
        <_>
          9 8 2 3 -1.</_>
        <_>
          9 9 2 1 3.</_></rects>
      <tilted>0</tilted></_>
    <_>
      <rects>
        <_>
          9 8 2 9 -1.</_>
        <_>
          9 11 2 3 3.</_></rects>
      <tilted>0</tilted></_>
    <_>
      <rects>
        <_>
          9 8 6 6 -1.</_>
        <_>
          12 8 3 6 2.</_></rects>
      <tilted>0</tilted></_>
    <_>
      <rects>
        <_>
          9 8 6 7 -1.</_>
        <_>
          12 8 3 7 2.</_></rects>
      <tilted>0</tilted></_>
    <_>
      <rects>
        <_>
          9 9 3 5 -1.</_>
        <_>
          10 9 1 5 3.</_></rects>
      <tilted>0</tilted></_>
    <_>
      <rects>
        <_>
          9 9 3 4 -1.</_>
        <_>
          9 11 3 2 2.</_></rects>
      <tilted>0</tilted></_>
    <_>
      <rects>
        <_>
          9 9 6 3 -1.</_>
        <_>
          12 9 3 3 2.</_></rects>
      <tilted>0</tilted></_>
    <_>
      <rects>
        <_>
          9 9 6 6 -1.</_>
        <_>
          9 11 6 2 3.</_></rects>
      <tilted>0</tilted></_>
    <_>
      <rects>
        <_>
          9 10 3 2 -1.</_>
        <_>
          10 10 1 2 3.</_></rects>
      <tilted>0</tilted></_>
    <_>
      <rects>
        <_>
          9 10 3 3 -1.</_>
        <_>
          10 10 1 3 3.</_></rects>
      <tilted>0</tilted></_>
    <_>
      <rects>
        <_>
          9 11 1 6 -1.</_>
        <_>
          9 14 1 3 2.</_></rects>
      <tilted>0</tilted></_>
    <_>
      <rects>
        <_>
          9 11 4 2 -1.</_>
        <_>
          9 11 2 1 2.</_>
        <_>
          11 12 2 1 2.</_></rects>
      <tilted>0</tilted></_>
    <_>
      <rects>
        <_>
          9 11 3 6 -1.</_>
        <_>
          9 14 3 3 2.</_></rects>
      <tilted>0</tilted></_>
    <_>
      <rects>
        <_>
          9 11 4 6 -1.</_>
        <_>
          9 14 4 3 2.</_></rects>
      <tilted>0</tilted></_>
    <_>
      <rects>
        <_>
          9 12 2 2 -1.</_>
        <_>
          9 13 2 1 2.</_></rects>
      <tilted>0</tilted></_>
    <_>
      <rects>
        <_>
          9 14 2 4 -1.</_>
        <_>
          10 14 1 4 2.</_></rects>
      <tilted>0</tilted></_>
    <_>
      <rects>
        <_>
          9 14 2 2 -1.</_>
        <_>
          9 15 2 1 2.</_></rects>
      <tilted>0</tilted></_>
    <_>
      <rects>
        <_>
          9 14 2 4 -1.</_>
        <_>
          9 16 2 2 2.</_></rects>
      <tilted>0</tilted></_>
    <_>
      <rects>
        <_>
          9 15 1 2 -1.</_>
        <_>
          9 16 1 1 2.</_></rects>
      <tilted>0</tilted></_>
    <_>
      <rects>
        <_>
          9 15 2 2 -1.</_>
        <_>
          9 16 2 1 2.</_></rects>
      <tilted>0</tilted></_>
    <_>
      <rects>
        <_>
          9 15 3 2 -1.</_>
        <_>
          9 16 3 1 2.</_></rects>
      <tilted>0</tilted></_>
    <_>
      <rects>
        <_>
          9 16 3 1 -1.</_>
        <_>
          10 16 1 1 3.</_></rects>
      <tilted>0</tilted></_>
    <_>
      <rects>
        <_>
          10 0 1 2 -1.</_>
        <_>
          10 1 1 1 2.</_></rects>
      <tilted>0</tilted></_>
    <_>
      <rects>
        <_>
          10 2 8 10 -1.</_>
        <_>
          10 7 8 5 2.</_></rects>
      <tilted>0</tilted></_>
    <_>
      <rects>
        <_>
          10 3 3 1 -1.</_>
        <_>
          11 3 1 1 3.</_></rects>
      <tilted>0</tilted></_>
    <_>
      <rects>
        <_>
          10 3 2 16 -1.</_>
        <_>
          10 11 2 8 2.</_></rects>
      <tilted>0</tilted></_>
    <_>
      <rects>
        <_>
          10 9 3 8 -1.</_>
        <_>
          10 13 3 4 2.</_></rects>
      <tilted>0</tilted></_>
    <_>
      <rects>
        <_>
          10 10 3 2 -1.</_>
        <_>
          11 10 1 2 3.</_></rects>
      <tilted>0</tilted></_>
    <_>
      <rects>
        <_>
          10 10 2 3 -1.</_>
        <_>
          11 10 1 3 2.</_></rects>
      <tilted>0</tilted></_>
    <_>
      <rects>
        <_>
          10 10 4 2 -1.</_>
        <_>
          10 10 2 1 2.</_>
        <_>
          12 11 2 1 2.</_></rects>
      <tilted>0</tilted></_>
    <_>
      <rects>
        <_>
          10 10 5 4 -1.</_>
        <_>
          10 12 5 2 2.</_></rects>
      <tilted>0</tilted></_>
    <_>
      <rects>
        <_>
          10 11 2 1 -1.</_>
        <_>
          11 11 1 1 2.</_></rects>
      <tilted>0</tilted></_>
    <_>
      <rects>
        <_>
          10 11 1 2 -1.</_>
        <_>
          10 12 1 1 2.</_></rects>
      <tilted>0</tilted></_>
    <_>
      <rects>
        <_>
          10 13 1 3 -1.</_>
        <_>
          10 14 1 1 3.</_></rects>
      <tilted>0</tilted></_>
    <_>
      <rects>
        <_>
          10 15 1 2 -1.</_>
        <_>
          10 16 1 1 2.</_></rects>
      <tilted>0</tilted></_>
    <_>
      <rects>
        <_>
          10 15 2 2 -1.</_>
        <_>
          10 16 2 1 2.</_></rects>
      <tilted>0</tilted></_>
    <_>
      <rects>
        <_>
          11 2 2 16 -1.</_>
        <_>
          11 10 2 8 2.</_></rects>
      <tilted>0</tilted></_>
    <_>
      <rects>
        <_>
          11 2 3 2 -1.</_>
        <_>
          11 3 3 1 2.</_></rects>
      <tilted>0</tilted></_>
    <_>
      <rects>
        <_>
          11 3 2 15 -1.</_>
        <_>
          11 8 2 5 3.</_></rects>
      <tilted>0</tilted></_>
    <_>
      <rects>
        <_>
          11 9 3 4 -1.</_>
        <_>
          12 9 1 4 3.</_></rects>
      <tilted>0</tilted></_>
    <_>
      <rects>
        <_>
          11 9 6 3 -1.</_>
        <_>
          13 9 2 3 3.</_></rects>
      <tilted>0</tilted></_>
    <_>
      <rects>
        <_>
          11 9 3 6 -1.</_>
        <_>
          11 12 3 3 2.</_></rects>
      <tilted>0</tilted></_>
    <_>
      <rects>
        <_>
          13 7 2 6 -1.</_>
        <_>
          14 7 1 6 2.</_></rects>
      <tilted>0</tilted></_>
    <_>
      <rects>
        <_>
          13 8 2 6 -1.</_>
        <_>
          13 8 1 3 2.</_>
        <_>
          14 11 1 3 2.</_></rects>
      <tilted>0</tilted></_>
    <_>
      <rects>
        <_>
          13 8 2 4 -1.</_>
        <_>
          14 8 1 4 2.</_></rects>
      <tilted>0</tilted></_>
    <_>
      <rects>
        <_>
          13 9 2 1 -1.</_>
        <_>
          14 9 1 1 2.</_></rects>
      <tilted>0</tilted></_>
    <_>
      <rects>
        <_>
          13 9 2 3 -1.</_>
        <_>
          14 9 1 3 2.</_></rects>
      <tilted>0</tilted></_>
    <_>
      <rects>
        <_>
          14 8 2 5 -1.</_>
        <_>
          15 8 1 5 2.</_></rects>
      <tilted>0</tilted></_>
    <_>
      <rects>
        <_>
          14 9 2 1 -1.</_>
        <_>
          15 9 1 1 2.</_></rects>
      <tilted>0</tilted></_>
    <_>
      <rects>
        <_>
          14 9 2 2 -1.</_>
        <_>
          15 9 1 2 2.</_></rects>
      <tilted>0</tilted></_></features></cascade>
</opencv_storage>
