<?xml version="1.0"?>
<opencv_storage>
<stage2>
  <maxWeakCount>70</maxWeakCount>
  <stageThreshold>-5.6069409847259521e-01</stageThreshold>
  <weakClassifiers>
    <_>
      <internalNodes>
        0 -1 53919 -2.5900936452671885e-04</internalNodes>
      <leafValues>
        4.7612157464027405e-01 1.6438356041908264e-01</leafValues></_>
    <_>
      <internalNodes>
        0 -1 64933 -3.0261422507464886e-03</internalNodes>
      <leafValues>
        3.0452021956443787e-01 -8.1336610019207001e-02</leafValues></_>
    <_>
      <internalNodes>
        0 -1 45129 6.6354083828628063e-03</internalNodes>
      <leafValues>
        -9.3031346797943115e-02 3.1924468278884888e-01</leafValues></_>
    <_>
      <internalNodes>
        0 -1 64542 -1.0981058701872826e-02</internalNodes>
      <leafValues>
        -6.3976991176605225e-01 1.4732993207871914e-02</leafValues></_>
    <_>
      <internalNodes>
        0 -1 60800 -8.1649255007505417e-03</internalNodes>
      <leafValues>
        -3.1437289714813232e-01 7.3231980204582214e-02</leafValues></_>
    <_>
      <internalNodes>
        0 -1 65565 2.7048012707382441e-03</internalNodes>
      <leafValues>
        -9.7410060465335846e-02 2.2968116402626038e-01</leafValues></_>
    <_>
      <internalNodes>
        0 -1 45521 -5.7863974943757057e-03</internalNodes>
      <leafValues>
        1.4154753088951111e-01 -1.6422021389007568e-01</leafValues></_>
    <_>
      <internalNodes>
        0 -1 66959 1.1811146512627602e-02</internalNodes>
      <leafValues>
        -1.1799003183841705e-01 1.7828138172626495e-01</leafValues></_>
    <_>
      <internalNodes>
        0 -1 74975 2.9513540212064981e-03</internalNodes>
      <leafValues>
        -8.7844803929328918e-02 2.2128784656524658e-01</leafValues></_>
    <_>
      <internalNodes>
        0 -1 75074 1.8547081854194403e-03</internalNodes>
      <leafValues>
        -1.0231264680624008e-01 2.1848574280738831e-01</leafValues></_>
    <_>
      <internalNodes>
        0 -1 75084 -9.4523606821894646e-04</internalNodes>
      <leafValues>
        2.0313054323196411e-01 -1.0866266489028931e-01</leafValues></_>
    <_>
      <internalNodes>
        0 -1 66303 6.0711144469678402e-03</internalNodes>
      <leafValues>
        2.7855422347784042e-02 -5.9637695550918579e-01</leafValues></_>
    <_>
      <internalNodes>
        0 -1 61442 -6.5198270604014397e-03</internalNodes>
      <leafValues>
        -7.2038358449935913e-01 2.2595455870032310e-02</leafValues></_>
    <_>
      <internalNodes>
        0 -1 71802 8.1451699137687683e-02</internalNodes>
      <leafValues>
        -2.1319966763257980e-02 9.0418595075607300e-01</leafValues></_>
    <_>
      <internalNodes>
        0 -1 60175 4.0086366236209869e-02</internalNodes>
      <leafValues>
        -7.5564026832580566e-02 2.2066839039325714e-01</leafValues></_>
    <_>
      <internalNodes>
        0 -1 77798 -2.2166941314935684e-02</internalNodes>
      <leafValues>
        4.6992960572242737e-01 -3.6385662853717804e-02</leafValues></_>
    <_>
      <internalNodes>
        0 -1 27041 3.0784076079726219e-03</internalNodes>
      <leafValues>
        -7.5244113802909851e-02 2.5646129250526428e-01</leafValues></_>
    <_>
      <internalNodes>
        0 -1 64535 6.0193019453436136e-04</internalNodes>
      <leafValues>
        -1.2067542970180511e-01 1.6025878489017487e-01</leafValues></_>
    <_>
      <internalNodes>
        0 -1 2901 1.0716758668422699e-01</internalNodes>
      <leafValues>
        -2.4918623268604279e-02 8.3839315176010132e-01</leafValues></_>
    <_>
      <internalNodes>
        0 -1 61251 4.3658986687660217e-03</internalNodes>
      <leafValues>
        3.5602666437625885e-02 -6.9042026996612549e-01</leafValues></_>
    <_>
      <internalNodes>
        0 -1 39339 -1.2783037964254618e-03</internalNodes>
      <leafValues>
        1.9336830079555511e-01 -1.0916325449943542e-01</leafValues></_>
    <_>
      <internalNodes>
        0 -1 14109 3.5202202852815390e-03</internalNodes>
      <leafValues>
        3.8285210728645325e-02 -5.6763440370559692e-01</leafValues></_>
    <_>
      <internalNodes>
        0 -1 467 -2.4078533053398132e-01</internalNodes>
      <leafValues>
        6.3216215372085571e-01 -3.0110368505120277e-02</leafValues></_>
    <_>
      <internalNodes>
        0 -1 6502 -9.0025812387466431e-03</internalNodes>
      <leafValues>
        1.6076335310935974e-01 -1.0698897391557693e-01</leafValues></_>
    <_>
      <internalNodes>
        0 -1 8577 3.9075270295143127e-02</internalNodes>
      <leafValues>
        -5.7082954794168472e-02 3.1641742587089539e-01</leafValues></_>
    <_>
      <internalNodes>
        0 -1 67809 2.5927214883267879e-03</internalNodes>
      <leafValues>
        -6.1397600919008255e-02 2.9661968350410461e-01</leafValues></_>
    <_>
      <internalNodes>
        0 -1 64931 9.2386733740568161e-04</internalNodes>
      <leafValues>
        -1.0422920435667038e-01 2.1103636920452118e-01</leafValues></_>
    <_>
      <internalNodes>
        0 -1 52399 3.1557913869619370e-02</internalNodes>
      <leafValues>
        3.9050474762916565e-02 -5.0778454542160034e-01</leafValues></_>
    <_>
      <internalNodes>
        0 -1 49042 2.1116174757480621e-03</internalNodes>
      <leafValues>
        -1.0122805088758469e-01 2.1904823184013367e-01</leafValues></_>
    <_>
      <internalNodes>
        0 -1 27073 3.9980635046958923e-03</internalNodes>
      <leafValues>
        -1.1700981855392456e-01 1.5366919338703156e-01</leafValues></_>
    <_>
      <internalNodes>
        0 -1 38234 3.5495132207870483e-02</internalNodes>
      <leafValues>
        -6.9850347936153412e-02 2.8230389952659607e-01</leafValues></_>
    <_>
      <internalNodes>
        0 -1 77111 3.3523486927151680e-03</internalNodes>
      <leafValues>
        -8.3395309746265411e-02 2.1655769646167755e-01</leafValues></_>
    <_>
      <internalNodes>
        0 -1 59961 4.2201494798064232e-03</internalNodes>
      <leafValues>
        3.3124420791864395e-02 -5.7969236373901367e-01</leafValues></_>
    <_>
      <internalNodes>
        0 -1 12616 -5.8157090097665787e-03</internalNodes>
      <leafValues>
        2.1452005207538605e-01 -8.6972579360008240e-02</leafValues></_>
    <_>
      <internalNodes>
        0 -1 13304 1.0663331486284733e-03</internalNodes>
      <leafValues>
        -8.3848081529140472e-02 2.3160560429096222e-01</leafValues></_>
    <_>
      <internalNodes>
        0 -1 54516 4.6117417514324188e-03</internalNodes>
      <leafValues>
        4.2135469615459442e-02 -5.0127822160720825e-01</leafValues></_>
    <_>
      <internalNodes>
        0 -1 64898 -7.1997335180640221e-04</internalNodes>
      <leafValues>
        1.8848673999309540e-01 -1.0180256515741348e-01</leafValues></_>
    <_>
      <internalNodes>
        0 -1 58505 -1.1452834587544203e-03</internalNodes>
      <leafValues>
        2.2770689427852631e-01 -8.3059854805469513e-02</leafValues></_>
    <_>
      <internalNodes>
        0 -1 57177 -1.5907008200883865e-02</internalNodes>
      <leafValues>
        -6.5726935863494873e-01 3.0658705160021782e-02</leafValues></_>
    <_>
      <internalNodes>
        0 -1 58544 4.5226905494928360e-03</internalNodes>
      <leafValues>
        -8.5399612784385681e-02 2.2332811355590820e-01</leafValues></_>
    <_>
      <internalNodes>
        0 -1 61628 7.0526250638067722e-03</internalNodes>
      <leafValues>
        2.8563724830746651e-02 -7.3081749677658081e-01</leafValues></_>
    <_>
      <internalNodes>
        0 -1 48538 -1.2504053302109241e-03</internalNodes>
      <leafValues>
        2.0131824910640717e-01 -1.0004737973213196e-01</leafValues></_>
    <_>
      <internalNodes>
        0 -1 48259 -2.3925020359456539e-03</internalNodes>
      <leafValues>
        2.3129211366176605e-01 -9.6842922270298004e-02</leafValues></_>
    <_>
      <internalNodes>
        0 -1 55727 -4.3879942968487740e-03</internalNodes>
      <leafValues>
        -4.3705660104751587e-01 4.4537670910358429e-02</leafValues></_>
    <_>
      <internalNodes>
        0 -1 56354 4.0980027988553047e-03</internalNodes>
      <leafValues>
        3.1231364235281944e-02 -5.6232529878616333e-01</leafValues></_>
    <_>
      <internalNodes>
        0 -1 72939 -3.8021255750209093e-03</internalNodes>
      <leafValues>
        -5.3153359889984131e-01 3.5056233406066895e-02</leafValues></_>
    <_>
      <internalNodes>
        0 -1 58557 3.6116288974881172e-03</internalNodes>
      <leafValues>
        4.7891404479742050e-02 -3.5480245947837830e-01</leafValues></_>
    <_>
      <internalNodes>
        0 -1 11143 -2.5878127664327621e-02</internalNodes>
      <leafValues>
        -5.9699058532714844e-01 2.6555391028523445e-02</leafValues></_>
    <_>
      <internalNodes>
        0 -1 12600 -8.9899485465139151e-04</internalNodes>
      <leafValues>
        1.7251722514629364e-01 -1.0264053940773010e-01</leafValues></_>
    <_>
      <internalNodes>
        0 -1 46485 -4.4314435217529535e-04</internalNodes>
      <leafValues>
        1.7732672393321991e-01 -1.0484663397073746e-01</leafValues></_>
    <_>
      <internalNodes>
        0 -1 56407 -8.0101713538169861e-03</internalNodes>
      <leafValues>
        -6.8447929620742798e-01 2.8292234987020493e-02</leafValues></_>
    <_>
      <internalNodes>
        0 -1 75829 4.2378399521112442e-03</internalNodes>
      <leafValues>
        -1.0300002992153168e-01 1.8809983134269714e-01</leafValues></_>
    <_>
      <internalNodes>
        0 -1 43843 -2.4159387685358524e-03</internalNodes>
      <leafValues>
        2.3512411117553711e-01 -7.6290115714073181e-02</leafValues></_>
    <_>
      <internalNodes>
        0 -1 73913 -2.0969044417142868e-02</internalNodes>
      <leafValues>
        2.2227180004119873e-01 -8.2111455500125885e-02</leafValues></_>
    <_>
      <internalNodes>
        0 -1 60011 6.1670690774917603e-04</internalNodes>
      <leafValues>
        -1.1565694957971573e-01 1.5160630643367767e-01</leafValues></_>
    <_>
      <internalNodes>
        0 -1 59709 1.3022816274315119e-03</internalNodes>
      <leafValues>
        -9.9765501916408539e-02 1.8554590642452240e-01</leafValues></_>
    <_>
      <internalNodes>
        0 -1 77589 9.5245540142059326e-03</internalNodes>
      <leafValues>
        3.5665865987539291e-02 -5.5207830667495728e-01</leafValues></_>
    <_>
      <internalNodes>
        0 -1 70567 4.9880100414156914e-03</internalNodes>
      <leafValues>
        2.0881785079836845e-02 -7.0892906188964844e-01</leafValues></_>
    <_>
      <internalNodes>
        0 -1 67675 8.2965353503823280e-03</internalNodes>
      <leafValues>
        -6.4649000763893127e-02 3.3710479736328125e-01</leafValues></_>
    <_>
      <internalNodes>
        0 -1 67256 3.9823567494750023e-03</internalNodes>
      <leafValues>
        -8.7873712182044983e-02 2.2295714914798737e-01</leafValues></_>
    <_>
      <internalNodes>
        0 -1 64460 -3.3770374953746796e-02</internalNodes>
      <leafValues>
        -4.2420274019241333e-01 4.3158423155546188e-02</leafValues></_>
    <_>
      <internalNodes>
        0 -1 67251 -6.0012247413396835e-03</internalNodes>
      <leafValues>
        -6.1418974399566650e-01 2.7770055457949638e-02</leafValues></_>
    <_>
      <internalNodes>
        0 -1 47707 5.2874386310577393e-02</internalNodes>
      <leafValues>
        2.6040995493531227e-02 -6.3109332323074341e-01</leafValues></_>
    <_>
      <internalNodes>
        0 -1 39824 5.0808000378310680e-03</internalNodes>
      <leafValues>
        -7.7370762825012207e-02 2.1951459348201752e-01</leafValues></_>
    <_>
      <internalNodes>
        0 -1 34159 -1.4307249337434769e-02</internalNodes>
      <leafValues>
        4.6165233850479126e-01 -3.8316369056701660e-02</leafValues></_>
    <_>
      <internalNodes>
        0 -1 57789 8.0134011805057526e-03</internalNodes>
      <leafValues>
        3.3792965114116669e-02 -5.8059382438659668e-01</leafValues></_>
    <_>
      <internalNodes>
        0 -1 39730 -4.0736077353358269e-03</internalNodes>
      <leafValues>
        -2.8473696112632751e-01 6.1595749109983444e-02</leafValues></_>
    <_>
      <internalNodes>
        0 -1 63986 -2.5780292227864265e-02</internalNodes>
      <leafValues>
        2.1092334389686584e-01 -8.3395145833492279e-02</leafValues></_>
    <_>
      <internalNodes>
        0 -1 18542 -4.0057092905044556e-02</internalNodes>
      <leafValues>
        1.7612591385841370e-01 -1.1309920251369476e-01</leafValues></_>
    <_>
      <internalNodes>
        0 -1 62248 -1.1642237659543753e-03</internalNodes>
      <leafValues>
        2.0177914202213287e-01 -9.6610546112060547e-02</leafValues></_></weakClassifiers></stage2>
</opencv_storage>
