<?xml version="1.0"?>
<opencv_storage>
<stage7>
  <maxWeakCount>96</maxWeakCount>
  <stageThreshold>-5.4129391908645630e-01</stageThreshold>
  <weakClassifiers>
    <_>
      <internalNodes>
        0 -1 62368 -4.0386896580457687e-03</internalNodes>
      <leafValues>
        -5.3097344934940338e-02 3.7091222405433655e-01</leafValues></_>
    <_>
      <internalNodes>
        0 -1 66200 7.2737326263450086e-05</internalNodes>
      <leafValues>
        -1.0666687041521072e-01 1.3331726193428040e-01</leafValues></_>
    <_>
      <internalNodes>
        0 -1 59325 -9.3268230557441711e-03</internalNodes>
      <leafValues>
        -2.7708730101585388e-01 5.1877383142709732e-02</leafValues></_>
    <_>
      <internalNodes>
        0 -1 53285 -1.4446508139371872e-02</internalNodes>
      <leafValues>
        2.6830428838729858e-01 -5.5376905947923660e-02</leafValues></_>
    <_>
      <internalNodes>
        0 -1 67958 -4.5921336859464645e-03</internalNodes>
      <leafValues>
        -4.5627352595329285e-01 4.0628314018249512e-03</leafValues></_>
    <_>
      <internalNodes>
        0 -1 61448 8.8405599817633629e-03</internalNodes>
      <leafValues>
        4.1405357420444489e-02 -3.4090739488601685e-01</leafValues></_>
    <_>
      <internalNodes>
        0 -1 64581 -2.5627005845308304e-02</internalNodes>
      <leafValues>
        -6.4268404245376587e-01 2.0337875466793776e-03</leafValues></_>
    <_>
      <internalNodes>
        0 -1 24263 9.8942250013351440e-02</internalNodes>
      <leafValues>
        -4.3537959456443787e-02 2.7962616086006165e-01</leafValues></_>
    <_>
      <internalNodes>
        0 -1 61628 9.8102400079369545e-04</internalNodes>
      <leafValues>
        -9.6987187862396240e-02 1.5231738984584808e-01</leafValues></_>
    <_>
      <internalNodes>
        0 -1 44926 -1.3288187328726053e-03</internalNodes>
      <leafValues>
        2.3331749439239502e-01 -6.0338050127029419e-02</leafValues></_>
    <_>
      <internalNodes>
        0 -1 44939 2.1847994066774845e-03</internalNodes>
      <leafValues>
        -8.9940764009952545e-02 2.4565887451171875e-01</leafValues></_>
    <_>
      <internalNodes>
        0 -1 77601 3.9350828155875206e-03</internalNodes>
      <leafValues>
        4.4379800558090210e-02 -4.1294845938682556e-01</leafValues></_>
    <_>
      <internalNodes>
        0 -1 65693 2.9401243664324284e-03</internalNodes>
      <leafValues>
        -7.4524998664855957e-02 2.0496994256973267e-01</leafValues></_>
    <_>
      <internalNodes>
        0 -1 68388 4.1156530380249023e-02</internalNodes>
      <leafValues>
        -2.8471013531088829e-02 6.8787384033203125e-01</leafValues></_>
    <_>
      <internalNodes>
        0 -1 68488 1.2625098228454590e-02</internalNodes>
      <leafValues>
        4.1131887584924698e-02 -4.0673640370368958e-01</leafValues></_>
    <_>
      <internalNodes>
        0 -1 48219 2.5664181448519230e-03</internalNodes>
      <leafValues>
        -4.9709789454936981e-02 2.7850753068923950e-01</leafValues></_>
    <_>
      <internalNodes>
        0 -1 48220 -2.8917214367538691e-03</internalNodes>
      <leafValues>
        -4.5229429006576538e-01 3.8473974913358688e-02</leafValues></_>
    <_>
      <internalNodes>
        0 -1 38699 -3.4800407593138516e-04</internalNodes>
      <leafValues>
        1.4927008748054504e-01 -9.7071908414363861e-02</leafValues></_>
    <_>
      <internalNodes>
        0 -1 76538 -6.2793225515633821e-04</internalNodes>
      <leafValues>
        1.3497106730937958e-01 -1.0755115747451782e-01</leafValues></_>
    <_>
      <internalNodes>
        0 -1 67810 2.3632859811186790e-03</internalNodes>
      <leafValues>
        4.8696018755435944e-02 -3.1552693247795105e-01</leafValues></_>
    <_>
      <internalNodes>
        0 -1 76284 -1.8824518192559481e-03</internalNodes>
      <leafValues>
        1.6872434318065643e-01 -8.6701266467571259e-02</leafValues></_>
    <_>
      <internalNodes>
        0 -1 68475 -2.8817474376410246e-03</internalNodes>
      <leafValues>
        1.9323518872261047e-01 -7.9444453120231628e-02</leafValues></_>
    <_>
      <internalNodes>
        0 -1 54516 -2.7555336710065603e-03</internalNodes>
      <leafValues>
        -3.0070027709007263e-01 5.2865944802761078e-02</leafValues></_>
    <_>
      <internalNodes>
        0 -1 32083 -4.1417917236685753e-03</internalNodes>
      <leafValues>
        1.9290322065353394e-01 -7.2672173380851746e-02</leafValues></_>
    <_>
      <internalNodes>
        0 -1 69405 -2.4527851492166519e-03</internalNodes>
      <leafValues>
        1.6204468905925751e-01 -8.2514598965644836e-02</leafValues></_>
    <_>
      <internalNodes>
        0 -1 53460 -6.8781734444200993e-03</internalNodes>
      <leafValues>
        2.5759726762771606e-01 -5.3704351186752319e-02</leafValues></_>
    <_>
      <internalNodes>
        0 -1 28056 5.2582253701984882e-03</internalNodes>
      <leafValues>
        2.2272547706961632e-02 -6.6208112239837646e-01</leafValues></_>
    <_>
      <internalNodes>
        0 -1 75323 8.1562250852584839e-03</internalNodes>
      <leafValues>
        2.6878537610173225e-02 -5.0528794527053833e-01</leafValues></_>
    <_>
      <internalNodes>
        0 -1 33189 -7.3823168873786926e-02</internalNodes>
      <leafValues>
        8.0785137414932251e-01 -1.8840499222278595e-02</leafValues></_>
    <_>
      <internalNodes>
        0 -1 56350 3.0182057619094849e-01</internalNodes>
      <leafValues>
        2.4863578379154205e-02 -7.1487295627593994e-01</leafValues></_>
    <_>
      <internalNodes>
        0 -1 72971 5.3465492092072964e-03</internalNodes>
      <leafValues>
        3.8726743310689926e-02 -3.2308605313301086e-01</leafValues></_>
    <_>
      <internalNodes>
        0 -1 18799 5.8291470631957054e-03</internalNodes>
      <leafValues>
        -4.9503747373819351e-02 2.6111271977424622e-01</leafValues></_>
    <_>
      <internalNodes>
        0 -1 53973 1.7619486898183823e-02</internalNodes>
      <leafValues>
        2.0237542688846588e-02 -6.5960997343063354e-01</leafValues></_>
    <_>
      <internalNodes>
        0 -1 52645 -1.0175383649766445e-03</internalNodes>
      <leafValues>
        1.8968518078327179e-01 -7.3760576546192169e-02</leafValues></_>
    <_>
      <internalNodes>
        0 -1 68231 1.6324422322213650e-03</internalNodes>
      <leafValues>
        -7.2273686528205872e-02 1.9922879338264465e-01</leafValues></_>
    <_>
      <internalNodes>
        0 -1 49903 -7.7738016843795776e-03</internalNodes>
      <leafValues>
        2.5366663932800293e-01 -5.2102841436862946e-02</leafValues></_>
    <_>
      <internalNodes>
        0 -1 35841 3.2928097993135452e-02</internalNodes>
      <leafValues>
        -4.8217996954917908e-02 2.9058721661567688e-01</leafValues></_>
    <_>
      <internalNodes>
        0 -1 31187 -1.0904436931014061e-02</internalNodes>
      <leafValues>
        2.1329209208488464e-01 -6.4950898289680481e-02</leafValues></_>
    <_>
      <internalNodes>
        0 -1 24010 -9.6168294548988342e-03</internalNodes>
      <leafValues>
        6.9857138395309448e-01 -1.7181398347020149e-02</leafValues></_>
    <_>
      <internalNodes>
        0 -1 44202 7.7795493416488171e-03</internalNodes>
      <leafValues>
        -5.2240271121263504e-02 2.4877800047397614e-01</leafValues></_>
    <_>
      <internalNodes>
        0 -1 40173 -7.8884869813919067e-02</internalNodes>
      <leafValues>
        6.1679041385650635e-01 -2.2401958703994751e-02</leafValues></_>
    <_>
      <internalNodes>
        0 -1 68778 -1.5864155720919371e-03</internalNodes>
      <leafValues>
        1.3650289177894592e-01 -1.0435366630554199e-01</leafValues></_>
    <_>
      <internalNodes>
        0 -1 72653 -3.2905347645282745e-02</internalNodes>
      <leafValues>
        3.9910957217216492e-01 -3.9741698652505875e-02</leafValues></_>
    <_>
      <internalNodes>
        0 -1 38093 -7.8196292743086815e-03</internalNodes>
      <leafValues>
        -2.2127154469490051e-01 7.2889894247055054e-02</leafValues></_>
    <_>
      <internalNodes>
        0 -1 55728 3.5386476665735245e-03</internalNodes>
      <leafValues>
        2.5881554931402206e-02 -5.1539319753646851e-01</leafValues></_>
    <_>
      <internalNodes>
        0 -1 62373 -3.0920919962227345e-03</internalNodes>
      <leafValues>
        2.7410146594047546e-01 -4.9969967454671860e-02</leafValues></_>
    <_>
      <internalNodes>
        0 -1 58574 7.8629254130646586e-04</internalNodes>
      <leafValues>
        -1.1540836840867996e-01 1.3783439993858337e-01</leafValues></_>
    <_>
      <internalNodes>
        0 -1 61957 1.0738056153059006e-02</internalNodes>
      <leafValues>
        2.1121267229318619e-02 -8.1771522760391235e-01</leafValues></_>
    <_>
      <internalNodes>
        0 -1 65436 -4.8804702237248421e-03</internalNodes>
      <leafValues>
        -4.5350560545921326e-01 2.8965463861823082e-02</leafValues></_>
    <_>
      <internalNodes>
        0 -1 3888 1.8293954432010651e-02</internalNodes>
      <leafValues>
        -4.2833860963582993e-02 3.4117209911346436e-01</leafValues></_>
    <_>
      <internalNodes>
        0 -1 56046 1.0216417722404003e-03</internalNodes>
      <leafValues>
        -8.6282655596733093e-02 1.7198343575000763e-01</leafValues></_>
    <_>
      <internalNodes>
        0 -1 45095 -4.7883354127407074e-03</internalNodes>
      <leafValues>
        -4.2509457468986511e-01 3.7830803543329239e-02</leafValues></_>
    <_>
      <internalNodes>
        0 -1 72176 -5.1161203533411026e-02</internalNodes>
      <leafValues>
        5.6809377670288086e-01 -2.6191724464297295e-02</leafValues></_>
    <_>
      <internalNodes>
        0 -1 40428 9.9677301477640867e-04</internalNodes>
      <leafValues>
        1.1461532860994339e-01 -1.1432731151580811e-01</leafValues></_>
    <_>
      <internalNodes>
        0 -1 59518 -1.0284381359815598e-01</internalNodes>
      <leafValues>
        -4.3540158867835999e-01 3.0129224061965942e-02</leafValues></_>
    <_>
      <internalNodes>
        0 -1 55592 2.0534954965114594e-02</internalNodes>
      <leafValues>
        -3.9574056863784790e-02 4.0625789761543274e-01</leafValues></_>
    <_>
      <internalNodes>
        0 -1 70567 -5.5912067182362080e-04</internalNodes>
      <leafValues>
        1.4630100131034851e-01 -9.3243382871150970e-02</leafValues></_>
    <_>
      <internalNodes>
        0 -1 70453 -1.0687692090868950e-02</internalNodes>
      <leafValues>
        -3.6025026440620422e-01 4.5280922204256058e-02</leafValues></_>
    <_>
      <internalNodes>
        0 -1 72694 3.8880510255694389e-03</internalNodes>
      <leafValues>
        -9.6989728510379791e-02 2.4160429835319519e-01</leafValues></_>
    <_>
      <internalNodes>
        0 -1 69282 -7.8706964850425720e-02</internalNodes>
      <leafValues>
        4.1382130980491638e-01 -3.4220594912767410e-02</leafValues></_>
    <_>
      <internalNodes>
        0 -1 76930 1.0819996893405914e-01</internalNodes>
      <leafValues>
        -2.8653578832745552e-02 4.6423792839050293e-01</leafValues></_>
    <_>
      <internalNodes>
        0 -1 53459 -3.9914557710289955e-03</internalNodes>
      <leafValues>
        1.8240141868591309e-01 -7.8899778425693512e-02</leafValues></_>
    <_>
      <internalNodes>
        0 -1 53225 6.9951955229043961e-03</internalNodes>
      <leafValues>
        -5.2341978996992111e-02 2.7764755487442017e-01</leafValues></_>
    <_>
      <internalNodes>
        0 -1 66821 1.1362635530531406e-02</internalNodes>
      <leafValues>
        3.5831656306982040e-02 -4.1773048043251038e-01</leafValues></_>
    <_>
      <internalNodes>
        0 -1 60276 1.0555827058851719e-02</internalNodes>
      <leafValues>
        5.2987918257713318e-02 -2.6320418715476990e-01</leafValues></_>
    <_>
      <internalNodes>
        0 -1 33013 1.0245610028505325e-01</internalNodes>
      <leafValues>
        -2.4707468226552010e-02 6.9161093235015869e-01</leafValues></_>
    <_>
      <internalNodes>
        0 -1 48502 2.9391245916485786e-03</internalNodes>
      <leafValues>
        4.1446637362241745e-02 -3.7918281555175781e-01</leafValues></_>
    <_>
      <internalNodes>
        0 -1 64729 1.1355153983458877e-03</internalNodes>
      <leafValues>
        -6.0501933097839355e-02 2.3427435755729675e-01</leafValues></_>
    <_>
      <internalNodes>
        0 -1 64731 -4.5422895345836878e-04</internalNodes>
      <leafValues>
        1.5120911598205566e-01 -1.0513274371623993e-01</leafValues></_>
    <_>
      <internalNodes>
        0 -1 59960 8.0142952501773834e-03</internalNodes>
      <leafValues>
        2.1049611270427704e-02 -6.8514221906661987e-01</leafValues></_>
    <_>
      <internalNodes>
        0 -1 45742 -9.2441095039248466e-03</internalNodes>
      <leafValues>
        -3.7667942047119141e-01 3.3873744308948517e-02</leafValues></_>
    <_>
      <internalNodes>
        0 -1 56358 4.1204756125807762e-03</internalNodes>
      <leafValues>
        2.4802714586257935e-02 -5.3592687845230103e-01</leafValues></_>
    <_>
      <internalNodes>
        0 -1 52873 1.3764426112174988e-02</internalNodes>
      <leafValues>
        -8.6278587579727173e-02 1.7120672762393951e-01</leafValues></_>
    <_>
      <internalNodes>
        0 -1 63607 -2.2880851756781340e-03</internalNodes>
      <leafValues>
        2.1400117874145508e-01 -6.7178621888160706e-02</leafValues></_>
    <_>
      <internalNodes>
        0 -1 65723 -6.5675447694957256e-03</internalNodes>
      <leafValues>
        -2.9585808515548706e-01 5.1520388573408127e-02</leafValues></_>
    <_>
      <internalNodes>
        0 -1 39634 -3.0935567338019609e-03</internalNodes>
      <leafValues>
        2.2905515134334564e-01 -6.2290806323289871e-02</leafValues></_>
    <_>
      <internalNodes>
        0 -1 39634 2.9826129321008921e-03</internalNodes>
      <leafValues>
        -6.4545594155788422e-02 2.1942332386970520e-01</leafValues></_>
    <_>
      <internalNodes>
        0 -1 47446 1.4486793661490083e-03</internalNodes>
      <leafValues>
        -9.9378824234008789e-02 1.4319352805614471e-01</leafValues></_>
    <_>
      <internalNodes>
        0 -1 2735 -7.5043863616883755e-03</internalNodes>
      <leafValues>
        3.0994933843612671e-01 -4.8465013504028320e-02</leafValues></_>
    <_>
      <internalNodes>
        0 -1 28144 5.8316458016633987e-02</internalNodes>
      <leafValues>
        -2.2401427850127220e-02 5.8788365125656128e-01</leafValues></_>
    <_>
      <internalNodes>
        0 -1 78254 6.1656115576624870e-03</internalNodes>
      <leafValues>
        4.3712366372346878e-02 -3.6467683315277100e-01</leafValues></_>
    <_>
      <internalNodes>
        0 -1 34229 -4.9935076385736465e-02</internalNodes>
      <leafValues>
        6.4913052320480347e-01 -2.2967670112848282e-02</leafValues></_>
    <_>
      <internalNodes>
        0 -1 31693 -4.8311021178960800e-02</internalNodes>
      <leafValues>
        -2.3896068334579468e-01 5.9200860559940338e-02</leafValues></_>
    <_>
      <internalNodes>
        0 -1 49745 3.6892630159854889e-02</internalNodes>
      <leafValues>
        2.7113853022456169e-02 -4.7179529070854187e-01</leafValues></_>
    <_>
      <internalNodes>
        0 -1 14138 4.4280420988798141e-03</internalNodes>
      <leafValues>
        -8.4935456514358521e-02 1.6348974406719208e-01</leafValues></_>
    <_>
      <internalNodes>
        0 -1 70897 1.6818607691675425e-03</internalNodes>
      <leafValues>
        -7.3721826076507568e-02 1.8548189103603363e-01</leafValues></_>
    <_>
      <internalNodes>
        0 -1 73381 -7.1639323141425848e-04</internalNodes>
      <leafValues>
        1.6700255870819092e-01 -9.4834715127944946e-02</leafValues></_>
    <_>
      <internalNodes>
        0 -1 65500 -3.9382055401802063e-02</internalNodes>
      <leafValues>
        7.5868916511535645e-01 -2.2727835923433304e-02</leafValues></_>
    <_>
      <internalNodes>
        0 -1 78316 -1.5990085899829865e-02</internalNodes>
      <leafValues>
        6.1839133501052856e-01 -2.0271079614758492e-02</leafValues></_>
    <_>
      <internalNodes>
        0 -1 65832 -3.5265646874904633e-02</internalNodes>
      <leafValues>
        4.3351480364799500e-01 -3.1051468104124069e-02</leafValues></_>
    <_>
      <internalNodes>
        0 -1 21328 5.5374586954712868e-03</internalNodes>
      <leafValues>
        4.7324024140834808e-02 -3.1675496697425842e-01</leafValues></_>
    <_>
      <internalNodes>
        0 -1 33953 1.9832726567983627e-02</internalNodes>
      <leafValues>
        -2.5112133473157883e-02 5.9150409698486328e-01</leafValues></_>
    <_>
      <internalNodes>
        0 -1 61125 -6.3850402832031250e-02</internalNodes>
      <leafValues>
        -5.4461723566055298e-01 3.0257496982812881e-02</leafValues></_>
    <_>
      <internalNodes>
        0 -1 55966 6.8791564553976059e-03</internalNodes>
      <leafValues>
        -6.2374848872423172e-02 2.2410108149051666e-01</leafValues></_>
    <_>
      <internalNodes>
        0 -1 13665 -3.7453321274369955e-03</internalNodes>
      <leafValues>
        -1.5508423745632172e-01 1.0015080124139786e-01</leafValues></_>
    <_>
      <internalNodes>
        0 -1 27285 7.2686006315052509e-03</internalNodes>
      <leafValues>
        5.3889252245426178e-02 -2.9214674234390259e-01</leafValues></_></weakClassifiers></stage7>
</opencv_storage>
